<?xml version="1.0" encoding="ISO-8859-1"?>
<!-- This network was created in GeNIe Academic, which can be used for educational and research purposes only -->
<smile version="1.0" id="dataset_mobile" numsamples="10000" discsamples="10000">
	<nodes>
		<cpt id="Occupation">
			<state id="admin" />
			<state id="housewife" />
			<state id="machinery" />
			<state id="managers" />
			<state id="sales" />
			<state id="student" />
			<state id="technicians" />
			<probabilities>0.1439520159946684 0.1401199600133289 0.1424525158280573 0.1479506831056314 0.1442852382539154 0.1467844051982672 0.1344551816061313</probabilities>
		</cpt>
		<cpt id="Gender">
			<state id="female" />
			<state id="male" />
			<parents>Occupation</parents>
			<probabilities>0.5185185185185185 0.4814814814814815 0.5005945303210463 0.4994054696789536 0.4935672514619883 0.5064327485380117 0.4864864864864865 0.5135135135135135 0.5034642032332564 0.4965357967667436 0.5232690124858116 0.4767309875141884 0.4907063197026023 0.5092936802973977</probabilities>
		</cpt>
		<cpt id="Age">
			<state id="S20_30" />
			<state id="S30_40" />
			<state id="S50_60" />
			<state id="below_20" />
			<parents>Occupation</parents>
			<probabilities>0.2743055555555555 0.25 0.2442129629629629 0.2314814814814815 0.2568370986920332 0.2592152199762188 0.2294887039239001 0.2544589774078478 0.2538011695906433 0.2315789473684211 0.2491228070175439 0.2654970760233918 0.2488738738738739 0.2432432432432432 0.259009009009009 0.2488738738738739 0.2321016166281755 0.2471131639722864 0.2817551963048499 0.2390300230946882 0.2417707150964813 0.2338251986379115 0.2758229284903518 0.2485811577752554 0.2379182156133829 0.2552664188351921 0.2527881040892193 0.2540272614622057</probabilities>
		</cpt>
		<cpt id="Income">
			<state id="high" />
			<state id="low" />
			<state id="moderate" />
			<parents>Occupation</parents>
			<probabilities>0.318287037037037 0.3657407407407407 0.3159722222222222 0.3388822829964328 0.3151010701545778 0.3460166468489893 0.3497076023391813 0.32046783625731 0.3298245614035088 0.3367117117117117 0.3367117117117117 0.3265765765765766 0.338337182448037 0.3036951501154734 0.3579676674364896 0.3121452894438138 0.3666288308740068 0.3212258796821793 0.2924411400247832 0.3469640644361834 0.3605947955390335</probabilities>
		</cpt>
		<cpt id="visit_URL">
			<state id="CheapFlights" />
			<state id="eBanking" />
			<state id="Government_Policy" />
			<state id="Properties" />
			<state id="SellBuy_Cars" />
			<state id="Vacation_Deals" />
			<parents>Occupation</parents>
			<probabilities>0.1828703703703703 0.1574074074074074 0.1550925925925926 0.1585648148148148 0.1678240740740741 0.1782407407407407 0.1498216409036861 0.1890606420927467 0.1747919143876338 0.1771700356718192 0.1521997621878716 0.1569560047562426 0.1812865497076023 0.1812865497076023 0.1649122807017544 0.1485380116959064 0.1567251461988304 0.1672514619883041 0.1869369369369369 0.1677927927927928 0.1745495495495495 0.1362612612612613 0.1587837837837838 0.1756756756756757 0.1836027713625866 0.1639722863741339 0.1697459584295612 0.1501154734411085 0.1535796766743649 0.1789838337182448 0.1555051078320091 0.1475595913734393 0.170261066969353 0.1748013620885357 0.1872871736662883 0.1645856980703746 0.1833952912019826 0.1697645600991326 0.1598513011152417 0.1586121437422553 0.1462205700123916 0.1821561338289963</probabilities>
		</cpt>
		<cpt id="publisher">
			<state id="AirAsia" />
			<state id="Hmetro" />
			<state id="jobstreet" />
			<state id="lowyat" />
			<state id="MalaysiaKini" />
			<state id="Maybank" />
			<state id="Mudah" />
			<state id="Paultan" />
			<parents>Occupation</parents>
			<probabilities>0.1377314814814815 0.09837962962962962 0.02083333333333333 0.02546296296296296 0.06712962962962962 0.2581018518518519 0.3252314814814815 0.06712962962962962 0.1379310344827586 0.06777645659928656 0.02615933412604043 0.01189060642092747 0.0713436385255648 0.2544589774078478 0.3721759809750297 0.05826397146254458 0.1649122807017544 0.09707602339181287 0.02339181286549707 0.0152046783625731 0.07602339181286549 0.2538011695906433 0.3157894736842105 0.05380116959064327 0.1801801801801802 0.09346846846846847 0.02364864864864865 0.01463963963963964 0.05518018018018018 0.2657657657657658 0.295045045045045 0.07207207207207207 0.138568129330254 0.1004618937644342 0.02655889145496536 0.02424942263279446 0.08660508083140878 0.24364896073903 0.3221709006928407 0.05773672055427252 0.1498297389330306 0.07264472190692395 0.02383654937570942 0.02156640181611805 0.08740068104426787 0.2508513053348468 0.3314415437003405 0.06242905788876277 0.1524163568773234 0.08550185873605948 0.02973977695167286 0.01734820322180917 0.08302354399008674 0.2478314745972739 0.3122676579925651 0.07187112763320942</probabilities>
		</cpt>
		<cpt id="Personalized_Info">
			<state id="AirFarePromotion" />
			<state id="Breaking_News_Oil" />
			<state id="Cheap_Secondhand" />
			<state id="CurrentPoliticalIssues" />
			<state id="Gadgets" />
			<state id="LatestCarModels" />
			<state id="Salary" />
			<state id="Stock_Gold_Insurance" />
			<parents>Occupation</parents>
			<probabilities>0.1377314814814815 0.09837962962962962 0.3252314814814815 0.06712962962962962 0.02546296296296296 0.06712962962962962 0.02083333333333333 0.2581018518518519 0.1379310344827586 0.06777645659928656 0.3721759809750297 0.0713436385255648 0.01189060642092747 0.05826397146254458 0.02615933412604043 0.2544589774078478 0.1649122807017544 0.09707602339181287 0.3157894736842105 0.07602339181286549 0.0152046783625731 0.05380116959064327 0.02339181286549707 0.2538011695906433 0.1801801801801802 0.09346846846846847 0.295045045045045 0.05518018018018018 0.01463963963963964 0.07207207207207207 0.02364864864864865 0.2657657657657658 0.138568129330254 0.1004618937644342 0.3221709006928407 0.08660508083140878 0.02424942263279446 0.05773672055427252 0.02655889145496536 0.24364896073903 0.1498297389330306 0.07264472190692395 0.3314415437003405 0.08740068104426787 0.02156640181611805 0.06242905788876277 0.02383654937570942 0.2508513053348468 0.1524163568773234 0.08550185873605948 0.3122676579925651 0.08302354399008674 0.01734820322180917 0.07187112763320942 0.02973977695167286 0.2478314745972739</probabilities>
		</cpt>
		<cpt id="Day_of_Week">
			<state id="Friday" />
			<state id="Monday" />
			<state id="Saturday" />
			<state id="Sunday" />
			<state id="Thursday" />
			<state id="Tuesday" />
			<state id="Wednesday" />
			<parents>Occupation</parents>
			<probabilities>0.1516203703703703 0.1041666666666667 0.1469907407407407 0.1701388888888889 0.1608796296296296 0.1226851851851852 0.1435185185185185 0.1391200951248514 0.09869203329369797 0.1510107015457788 0.1997621878715814 0.1355529131985731 0.1272294887039239 0.1486325802615933 0.143859649122807 0.1228070175438597 0.1461988304093567 0.1883040935672515 0.1134502923976608 0.1239766081871345 0.1614035087719298 0.1418918918918919 0.1148648648648649 0.1497747747747748 0.1779279279279279 0.1283783783783784 0.1475225225225225 0.1396396396396396 0.1524249422632794 0.08891454965357967 0.1535796766743649 0.1939953810623556 0.138568129330254 0.1304849884526559 0.1420323325635104 0.133938706015891 0.1146424517593644 0.152099886492622 0.170261066969353 0.1259931895573212 0.1679909194097616 0.1350737797956867 0.1635687732342007 0.080545229244114 0.1672862453531599 0.184634448574969 0.1214374225526642 0.1437422552664188 0.1387856257744734</probabilities>
		</cpt>
		<cpt id="Browse_Time">
			<state id="Afternoon" />
			<state id="Evening" />
			<state id="Late_Night" />
			<state id="Morning" />
			<state id="Night" />
			<state id="Noon" />
			<parents>Occupation</parents>
			<probabilities>0.181712962962963 0.1875 0.08217592592592592 0.3125 0.1481481481481481 0.08796296296296297 0.1961950059453032 0.1664684898929845 0.09274673008323424 0.3091557669441141 0.1284185493460166 0.1070154577883472 0.1871345029239766 0.1684210526315789 0.09005847953216374 0.3263157894736842 0.143859649122807 0.08421052631578947 0.1925675675675676 0.1621621621621622 0.08671171171171171 0.3231981981981982 0.1486486486486487 0.08671171171171171 0.1847575057736721 0.1501154734411085 0.1073903002309469 0.336027713625866 0.1420323325635104 0.07967667436489607 0.170261066969353 0.1657207718501703 0.08399545970488081 0.3359818388195233 0.1475595913734393 0.09648127128263337 0.1734820322180917 0.1759603469640644 0.080545229244114 0.3333333333333333 0.137546468401487 0.09913258983890955</probabilities>
		</cpt>
		<cpt id="phone_brand">
			<state id="Acer" />
			<state id="Apple" />
			<state id="HTC" />
			<state id="Lenovo" />
			<state id="Nokia" />
			<state id="Samsung" />
			<state id="Sony" />
			<state id="XiaoMi" />
			<parents>Occupation</parents>
			<probabilities>0.1134259259259259 0.1331018518518518 0.1145833333333333 0.1423611111111111 0.1157407407407407 0.1238425925925926 0.1145833333333333 0.1423611111111111 0.1200951248513674 0.103448275862069 0.1212841854934602 0.1450653983353151 0.1391200951248514 0.1200951248513674 0.1284185493460166 0.1224732461355529 0.1216374269005848 0.1087719298245614 0.1415204678362573 0.112280701754386 0.1239766081871345 0.1251461988304094 0.1426900584795322 0.1239766081871345 0.1283783783783784 0.1295045045045045 0.1193693693693694 0.1362612612612613 0.1373873873873874 0.1272522522522523 0.1024774774774775 0.1193693693693694 0.1212471131639723 0.1235565819861432 0.1304849884526559 0.1351039260969977 0.1339491916859122 0.1143187066974596 0.1304849884526559 0.1108545034642032 0.1010215664018161 0.1271282633371169 0.1384790011350738 0.1225879682179342 0.1373439273552781 0.1248581157775255 0.1248581157775255 0.1237230419977298 0.1301115241635688 0.1189591078066914 0.1251548946716233 0.1449814126394052 0.1177199504337051 0.08798017348203221 0.1338289962825279 0.1412639405204461</probabilities>
		</cpt>
		<cpt id="Call_Time">
			<state id="afternoon" />
			<state id="evening" />
			<state id="morning" />
			<state id="night" />
			<state id="noon" />
			<parents>Occupation</parents>
			<probabilities>0.2071759259259259 0.1898148148148148 0.1990740740740741 0.2002314814814815 0.2037037037037037 0.2140309155766944 0.2033293697978597 0.1950059453032104 0.1866825208085612 0.2009512485136742 0.1988304093567252 0.2105263157894737 0.2 0.2011695906432749 0.1894736842105263 0.1993243243243243 0.1756756756756757 0.2184684684684685 0.1981981981981982 0.2083333333333333 0.2090069284064665 0.2009237875288684 0.2066974595842956 0.1789838337182448 0.2043879907621247 0.1827468785471056 0.1906923950056754 0.1906923950056754 0.2088535754824064 0.2270147559591373 0.1784386617100372 0.2019826517967782 0.2032218091697646 0.2118959107806692 0.2044609665427509</probabilities>
		</cpt>
	</nodes>
	<extensions>
		<genie version="1.0" app="GeNIe 2.5.5408.0 ACADEMIC" name="dataset_mobile">
			<node id="Gender">
				<name>Gender</name>
				<interior color="e5f6f7" />
				<outline color="000080" />
				<font color="000000" name="Arial" size="8" />
				<position>679 401 751 449</position>
				<barchart active="true" width="128" height="64" />
			</node>
			<node id="Age">
				<name>Age</name>
				<interior color="e5f6f7" />
				<outline color="000080" />
				<font color="000000" name="Arial" size="8" />
				<position>610 539 682 587</position>
				<barchart active="true" width="128" height="90" />
			</node>
			<node id="Occupation">
				<name>Occupation</name>
				<interior color="ffff80" />
				<outline color="000080" />
				<font color="000000" name="Arial" size="8" />
				<position>381 336 453 384</position>
				<barchart active="true" width="186" height="197" />
			</node>
			<node id="Income">
				<name>Income</name>
				<interior color="e5f6f7" />
				<outline color="000080" />
				<font color="000000" name="Arial" size="8" />
				<position>154 521 226 569</position>
				<barchart active="true" width="128" height="72" />
			</node>
			<node id="visit_URL">
				<name>visit_URL</name>
				<interior color="e5f6f7" />
				<outline color="000080" />
				<font color="000000" name="Arial" size="8" />
				<position>452 667 524 715</position>
				<barchart active="true" width="128" height="126" />
			</node>
			<node id="publisher">
				<name>publisher</name>
				<interior color="e5f6f7" />
				<outline color="000080" />
				<font color="000000" name="Arial" size="8" />
				<position>246 685 318 733</position>
				<barchart active="true" width="128" height="162" />
			</node>
			<node id="Personalized_Info">
				<name>Personalized_Info</name>
				<interior color="e5f6f7" />
				<outline color="000080" />
				<font color="000000" name="Arial" size="8" />
				<position>55 372 127 420</position>
				<barchart active="true" width="128" height="162" />
			</node>
			<node id="Day_of_Week">
				<name>Day_of_Week</name>
				<interior color="e5f6f7" />
				<outline color="000080" />
				<font color="000000" name="Arial" size="8" />
				<position>128 188 200 236</position>
				<barchart active="true" width="128" height="144" />
			</node>
			<node id="Browse_Time">
				<name>Browse_Time</name>
				<interior color="e5f6f7" />
				<outline color="000080" />
				<font color="000000" name="Arial" size="8" />
				<position>305 76 377 124</position>
				<barchart active="true" width="128" height="126" />
			</node>
			<node id="phone_brand">
				<name>phone_brand</name>
				<interior color="e5f6f7" />
				<outline color="000080" />
				<font color="000000" name="Arial" size="8" />
				<position>513 64 585 112</position>
				<barchart active="true" width="128" height="162" />
			</node>
			<node id="Call_Time">
				<name>Call_Time</name>
				<interior color="e5f6f7" />
				<outline color="000080" />
				<font color="000000" name="Arial" size="8" />
				<position>659 249 731 297</position>
				<barchart active="true" width="128" height="108" />
			</node>
			<textbox>
				<caption>Input file: dataset_mobile.csv\nData rows: 6002\nElapsed time: 0.047s\n\nLearning algorithm: Naive Bayes\nAlgorithm parameters:\nClass variable: Occupation\n\nEM Log Likelihood: -106214</caption>
				<font color="000000" name="Arial" size="8" />
				<position>816 208 971 334</position>
			</textbox>
		</genie>
	</extensions>
</smile>
